digraph Tree {
node [shape=box, style="filled, rounded", color="black", fontname=helvetica] ;
edge [fontname=helvetica] ;
0 [label=<PEDESTRIAN_INVOLVED &le; 0.5<br/>gini = 0.443<br/>samples = 14995<br/>value = [10774, 2741, 1247, 200, 33]<br/>class = 1>, fillcolor="#eeac7d"] ;
1 [label=<MOTORCYCLE_INVOLVED &le; 0.5<br/>gini = 0.426<br/>samples = 14700<br/>value = [10762, 2624, 1127, 164, 23]<br/>class = 1>, fillcolor="#edaa7a"] ;
0 -> 1 [labeldistance=2.5, labelangle=45, headlabel="True"] ;
2 [label=<BICYCLIST_INVOLVED &le; 0.5<br/>gini = 0.417<br/>samples = 14517<br/>value = [10729, 2581, 1042, 148, 17]<br/>class = 1>, fillcolor="#eda978"] ;
1 -> 2 ;
3 [label=<DISTRACTED_DRIVING &le; 0.5<br/>gini = 0.409<br/>samples = 14392<br/>value = [10721, 2534, 989, 132, 16]<br/>class = 1>, fillcolor="#eda876"] ;
2 -> 3 ;
4 [label=<NIGHT_DARK_CONDITION &le; 0.5<br/>gini = 0.396<br/>samples = 13156<br/>value = [9941, 2218, 862, 119, 16]<br/>class = 1>, fillcolor="#eda673"] ;
3 -> 4 ;
5 [label=<TEENAGE_DRIVER_INVOLVED &le; 0.5<br/>gini = 0.391<br/>samples = 10088<br/>value = [7662, 1695, 639, 83, 9]<br/>class = 1>, fillcolor="#eda572"] ;
4 -> 5 ;
6 [label=<gini = 0.388<br/>samples = 8340<br/>value = [6353, 1387, 519, 73, 8]<br/>class = 1>, fillcolor="#eca572"] ;
5 -> 6 ;
7 [label=<gini = 0.403<br/>samples = 1748<br/>value = [1309, 308, 120, 10, 1]<br/>class = 1>, fillcolor="#eda775"] ;
5 -> 7 ;
8 [label=<TEENAGE_DRIVER_INVOLVED &le; 0.5<br/>gini = 0.414<br/>samples = 3068<br/>value = [2279, 523, 223, 36, 7]<br/>class = 1>, fillcolor="#eda876"] ;
4 -> 8 ;
9 [label=<gini = 0.41<br/>samples = 2507<br/>value = [1868, 431, 175, 28, 5]<br/>class = 1>, fillcolor="#eda876"] ;
8 -> 9 ;
10 [label=<gini = 0.429<br/>samples = 561<br/>value = [411, 92, 48, 8, 2]<br/>class = 1>, fillcolor="#eda978"] ;
8 -> 10 ;
11 [label=<TEENAGE_DRIVER_INVOLVED &le; 0.5<br/>gini = 0.526<br/>samples = 1236<br/>value = [780, 316, 127, 13, 0]<br/>class = 1>, fillcolor="#f2bf9b"] ;
3 -> 11 ;
12 [label=<NIGHT_DARK_CONDITION &le; 0.5<br/>gini = 0.522<br/>samples = 974<br/>value = [621, 241, 100, 12, 0]<br/>class = 1>, fillcolor="#f2be98"] ;
11 -> 12 ;
13 [label=<gini = 0.52<br/>samples = 787<br/>value = [501, 200, 78, 8, 0]<br/>class = 1>, fillcolor="#f2be99"] ;
12 -> 13 ;
14 [label=<gini = 0.526<br/>samples = 187<br/>value = [120, 41, 22, 4, 0]<br/>class = 1>, fillcolor="#f1bb94"] ;
12 -> 14 ;
15 [label=<NIGHT_DARK_CONDITION &le; 0.5<br/>gini = 0.539<br/>samples = 262<br/>value = [159, 75, 27, 1, 0]<br/>class = 1>, fillcolor="#f3c6a6"] ;
11 -> 15 ;
16 [label=<gini = 0.534<br/>samples = 215<br/>value = [131, 63, 20, 1, 0]<br/>class = 1>, fillcolor="#f3c7a6"] ;
15 -> 16 ;
17 [label=<gini = 0.558<br/>samples = 47<br/>value = [28, 12, 7, 0, 0]<br/>class = 1>, fillcolor="#f3c5a4"] ;
15 -> 17 ;
18 [label=<DISTRACTED_DRIVING &le; 0.5<br/>gini = 0.658<br/>samples = 125<br/>value = [8, 47, 53, 16, 1]<br/>class = 3>, fillcolor="#f0fdfb"] ;
2 -> 18 ;
19 [label=<TEENAGE_DRIVER_INVOLVED &le; 0.5<br/>gini = 0.663<br/>samples = 121<br/>value = [8, 46, 50, 16, 1]<br/>class = 3>, fillcolor="#f4fefc"] ;
18 -> 19 ;
20 [label=<NIGHT_DARK_CONDITION &le; 0.5<br/>gini = 0.675<br/>samples = 101<br/>value = [8, 37, 41, 14, 1]<br/>class = 3>, fillcolor="#f3fdfb"] ;
19 -> 20 ;
21 [label=<gini = 0.673<br/>samples = 84<br/>value = [7, 31, 34, 12, 0]<br/>class = 3>, fillcolor="#f4fefc"] ;
20 -> 21 ;
22 [label=<gini = 0.685<br/>samples = 17<br/>value = [1, 6, 7, 2, 1]<br/>class = 3>, fillcolor="#edfdfa"] ;
20 -> 22 ;
23 [label=<NIGHT_DARK_CONDITION &le; 0.5<br/>gini = 0.585<br/>samples = 20<br/>value = [0, 9, 9, 2, 0]<br/>class = 2>, fillcolor="#ffffff"] ;
19 -> 23 ;
24 [label=<gini = 0.56<br/>samples = 15<br/>value = [0, 7, 7, 1, 0]<br/>class = 2>, fillcolor="#ffffff"] ;
23 -> 24 ;
25 [label=<gini = 0.64<br/>samples = 5<br/>value = [0, 2, 2, 1, 0]<br/>class = 2>, fillcolor="#ffffff"] ;
23 -> 25 ;
26 [label=<gini = 0.375<br/>samples = 4<br/>value = [0, 1, 3, 0, 0]<br/>class = 3>, fillcolor="#7beed8"] ;
18 -> 26 ;
27 [label=<TEENAGE_DRIVER_INVOLVED &le; 0.5<br/>gini = 0.688<br/>samples = 183<br/>value = [33, 43, 85, 16, 6]<br/>class = 3>, fillcolor="#c4f7ee"] ;
1 -> 27 ;
28 [label=<NIGHT_DARK_CONDITION &le; 0.5<br/>gini = 0.678<br/>samples = 161<br/>value = [31, 33, 78, 13, 6]<br/>class = 3>, fillcolor="#b9f6eb"] ;
27 -> 28 ;
29 [label=<BICYCLIST_INVOLVED &le; 0.5<br/>gini = 0.689<br/>samples = 128<br/>value = [30, 27, 58, 9, 4]<br/>class = 3>, fillcolor="#c6f8ee"] ;
28 -> 29 ;
30 [label=<DISTRACTED_DRIVING &le; 0.5<br/>gini = 0.688<br/>samples = 127<br/>value = [30, 26, 58, 9, 4]<br/>class = 3>, fillcolor="#c6f7ee"] ;
29 -> 30 ;
31 [label=<gini = 0.687<br/>samples = 115<br/>value = [26, 24, 53, 8, 4]<br/>class = 3>, fillcolor="#c3f7ed"] ;
30 -> 31 ;
32 [label=<gini = 0.681<br/>samples = 12<br/>value = [4, 2, 5, 1, 0]<br/>class = 3>, fillcolor="#e6fcf8"] ;
30 -> 32 ;
33 [label=<gini = 0.0<br/>samples = 1<br/>value = [0, 1, 0, 0, 0]<br/>class = 2>, fillcolor="#7be539"] ;
29 -> 33 ;
34 [label=<gini = 0.58<br/>samples = 33<br/>value = [1, 6, 20, 4, 2]<br/>class = 3>, fillcolor="#98f2e1"] ;
28 -> 34 ;
35 [label=<NIGHT_DARK_CONDITION &le; 0.5<br/>gini = 0.665<br/>samples = 22<br/>value = [2, 10, 7, 3, 0]<br/>class = 2>, fillcolor="#e5fad7"] ;
27 -> 35 ;
36 [label=<DISTRACTED_DRIVING &le; 0.5<br/>gini = 0.698<br/>samples = 18<br/>value = [2, 6, 7, 3, 0]<br/>class = 3>, fillcolor="#eefdfa"] ;
35 -> 36 ;
37 [label=<gini = 0.699<br/>samples = 17<br/>value = [2, 5, 7, 3, 0]<br/>class = 3>, fillcolor="#defbf5"] ;
36 -> 37 ;
38 [label=<gini = 0.0<br/>samples = 1<br/>value = [0, 1, 0, 0, 0]<br/>class = 2>, fillcolor="#7be539"] ;
36 -> 38 ;
39 [label=<gini = 0.0<br/>samples = 4<br/>value = [0, 4, 0, 0, 0]<br/>class = 2>, fillcolor="#7be539"] ;
35 -> 39 ;
40 [label=<BICYCLIST_INVOLVED &le; 0.5<br/>gini = 0.66<br/>samples = 295<br/>value = [12, 117, 120, 36, 10]<br/>class = 3>, fillcolor="#fcfffe"] ;
0 -> 40 [labeldistance=2.5, labelangle=-45, headlabel="False"] ;
41 [label=<MOTORCYCLE_INVOLVED &le; 0.5<br/>gini = 0.657<br/>samples = 294<br/>value = [12, 117, 120, 36, 9]<br/>class = 3>, fillcolor="#fcfffe"] ;
40 -> 41 ;
42 [label=<TEENAGE_DRIVER_INVOLVED &le; 0.5<br/>gini = 0.655<br/>samples = 290<br/>value = [12, 117, 118, 35, 8]<br/>class = 3>, fillcolor="#feffff"] ;
41 -> 42 ;
43 [label=<DISTRACTED_DRIVING &le; 0.5<br/>gini = 0.648<br/>samples = 268<br/>value = [9, 111, 109, 31, 8]<br/>class = 2>, fillcolor="#fdfffd"] ;
42 -> 43 ;
44 [label=<NIGHT_DARK_CONDITION &le; 0.5<br/>gini = 0.644<br/>samples = 248<br/>value = [8, 106, 99, 27, 8]<br/>class = 2>, fillcolor="#f9fef6"] ;
43 -> 44 ;
45 [label=<gini = 0.619<br/>samples = 159<br/>value = [5, 69, 68, 15, 2]<br/>class = 2>, fillcolor="#fefffd"] ;
44 -> 45 ;
46 [label=<gini = 0.682<br/>samples = 89<br/>value = [3, 37, 31, 12, 6]<br/>class = 2>, fillcolor="#f1fceb"] ;
44 -> 46 ;
47 [label=<NIGHT_DARK_CONDITION &le; 0.5<br/>gini = 0.645<br/>samples = 20<br/>value = [1, 5, 10, 4, 0]<br/>class = 3>, fillcolor="#bdf6ec"] ;
43 -> 47 ;
48 [label=<gini = 0.684<br/>samples = 14<br/>value = [1, 4, 6, 3, 0]<br/>class = 3>, fillcolor="#d7faf3"] ;
47 -> 48 ;
49 [label=<gini = 0.5<br/>samples = 6<br/>value = [0, 1, 4, 1, 0]<br/>class = 3>, fillcolor="#88efdc"] ;
47 -> 49 ;
50 [label=<DISTRACTED_DRIVING &le; 0.5<br/>gini = 0.707<br/>samples = 22<br/>value = [3, 6, 9, 4, 0]<br/>class = 3>, fillcolor="#dafaf4"] ;
42 -> 50 ;
51 [label=<NIGHT_DARK_CONDITION &le; 0.5<br/>gini = 0.715<br/>samples = 20<br/>value = [3, 5, 8, 4, 0]<br/>class = 3>, fillcolor="#d7faf3"] ;
50 -> 51 ;
52 [label=<gini = 0.711<br/>samples = 15<br/>value = [2, 4, 6, 3, 0]<br/>class = 3>, fillcolor="#dbfaf4"] ;
51 -> 52 ;
53 [label=<gini = 0.72<br/>samples = 5<br/>value = [1, 1, 2, 1, 0]<br/>class = 3>, fillcolor="#cef8f0"] ;
51 -> 53 ;
54 [label=<NIGHT_DARK_CONDITION &le; 0.5<br/>gini = 0.5<br/>samples = 2<br/>value = [0, 1, 1, 0, 0]<br/>class = 2>, fillcolor="#ffffff"] ;
50 -> 54 ;
55 [label=<gini = 0.0<br/>samples = 1<br/>value = [0, 0, 1, 0, 0]<br/>class = 3>, fillcolor="#39e5c5"] ;
54 -> 55 ;
56 [label=<gini = 0.0<br/>samples = 1<br/>value = [0, 1, 0, 0, 0]<br/>class = 2>, fillcolor="#7be539"] ;
54 -> 56 ;
57 [label=<gini = 0.625<br/>samples = 4<br/>value = [0, 0, 2, 1, 1]<br/>class = 3>, fillcolor="#bdf6ec"] ;
41 -> 57 ;
58 [label=<gini = 0.0<br/>samples = 1<br/>value = [0, 0, 0, 0, 1]<br/>class = 5>, fillcolor="#e539c0"] ;
40 -> 58 ;
}